{"m":2,"s":5,"a":3,"w":{"nh":100,"ns":5,"na":3,"net":{"W1":{"n":100,"d":5,"w":{"0":-0.5878138703059589,"1":-0.4337444576732244,"2":-0.23501860248688952,"3":2.9050134421463896,"4":-1.2065802138916766,"5":-3.6602873787610535,"6":-0.5940691221416278,"7":3.90688215623377,"8":-1.98340452292158,"9":-1.7508474933932074,"10":0.0027471334013777133,"11":-0.0994731618065315,"12":-0.18020854630629657,"13":-0.49274529301670683,"14":-0.4641702047433906,"15":0.018722335389280285,"16":-0.03411718536365273,"17":-0.14952990986439793,"18":-0.23456164789892778,"19":-0.19917636083061133,"20":-0.005891193392147177,"21":-0.05173765793194644,"22":0.03897401432160129,"23":0.4095302549226778,"24":0.32117856796049243,"25":0.046407880694081444,"26":-0.012991625476435238,"27":0.1829149610359814,"28":-0.042953849086520675,"29":-1.1925305034247642,"30":0.12402532428911199,"31":0.23902456738313516,"32":-0.02289149729666909,"33":0.7659948490516977,"34":0.6700311009456378,"35":0.02173652292992249,"36":-0.27511462571581285,"37":-0.44920820693959046,"38":-0.3792153141088291,"39":-0.4215488028461477,"40":-3.0659082842310084,"41":-1.3174986717812203,"42":1.3173614616996303,"43":1.2877833738211164,"44":-0.9035962548794693,"45":0.01072743723309709,"46":0.048153376822234625,"47":-0.057240632940516276,"48":-0.31981953785879247,"49":-0.3038596430971739,"50":-0.02536468520280075,"51":-0.08727820598673504,"52":0.15322586974866625,"53":-0.2535767994863085,"54":-0.1562702837455116,"55":-0.07532941881599299,"56":-0.4721506661241436,"57":0.2042695160025447,"58":0.5473872163723347,"59":0.5616063487050007,"60":0.1953138059851448,"61":0.5372741861013768,"62":-0.2655392107216915,"63":0.5139147864666839,"64":0.7527302603306263,"65":-0.01738256507156971,"66":0.5797682518831597,"67":-0.04112507643098039,"68":-0.546781432871382,"69":-0.17630119890132773,"70":-0.017378058254916486,"71":-0.17671791426686806,"72":-0.274218268631289,"73":-0.571976601199682,"74":-0.6342424043953692,"75":0.11662393102912669,"76":0.8500325121161185,"77":-0.24607859014602326,"78":-0.24290350704388955,"79":0.20042592037892493,"80":-0.006477464798706225,"81":0.07827844631996848,"82":0.20614768968412966,"83":0.5886128157564902,"84":0.5350041651468224,"85":-0.025013380281725568,"86":0.07263669750412345,"87":0.3332939483524399,"88":-0.43425601914694045,"89":0.14467558757699747,"90":0.04659655215502481,"91":-0.0942236617249915,"92":-0.42070326592937307,"93":-0.34242817630482886,"94":-0.4204026707996568,"95":-0.025666908324180775,"96":-0.03695694702605833,"97":0.05255907554988986,"98":-0.560214522676232,"99":-0.34704775138117927,"100":-0.7544041619371471,"101":0.7433221849639278,"102":-0.29748262599808123,"103":0.9263711448115394,"104":-0.052492226513476875,"105":0.694495201829361,"106":0.43220971396210284,"107":0.3372840651942184,"108":1.3883892187430322,"109":1.1428534872650282,"110":0.08598987328608589,"111":-0.08592600079867461,"112":-0.416661570539787,"113":-0.16280111649894372,"114":-0.3406335515626483,"115":0.06027429683603816,"116":-0.26815407065500385,"117":0.13596719724288014,"118":-0.7584039880930586,"119":-0.3544768800448534,"120":-1.9565116533856428,"121":-0.8031638171430443,"122":2.6757968701804935,"123":1.1078747334300612,"124":1.778188835311985,"125":0.01748113906548604,"126":-0.16579287131739387,"127":-0.2807780923476921,"128":-0.16229320705402742,"129":-0.26589097688675817,"130":0.11312541724303242,"131":0.9956967330894101,"132":-0.29993578838159507,"133":-0.3280160838051077,"134":0.44732353000737063,"135":0.0058447949967116615,"136":-0.05386019535749312,"137":-0.0667128740314165,"138":0.34177603628431236,"139":0.09187595594984889,"140":1.665511897046774,"141":-0.03392057139850098,"142":-0.5053726525598949,"143":1.9354662502721187,"144":2.35792951188728,"145":0.0006119516471205365,"146":-0.08497224194180243,"147":-0.024142908312725184,"148":-0.05588219444300483,"149":-0.09031720622420075,"150":0.15143839956338045,"151":0.6851426389773457,"152":-0.08249148937372418,"153":0.2658785751370288,"154":-0.03519940560870774,"155":-1.7396495591051575,"156":-0.08601874476654632,"157":-0.0997991075218647,"158":2.341241641788468,"159":0.8414106078599775,"160":1.9012286775847262,"161":0.6843103853932758,"162":0.09051143354997589,"163":1.2526958704448827,"164":1.3278421511026108,"165":1.5765998701443495,"166":-3.300696373355486,"167":0.15605470974459193,"168":1.2280966439674987,"169":1.4907948114170422,"170":0.01634306455129876,"171":-0.14880112839782939,"172":-0.25894567137150404,"173":-0.17559971850231043,"174":-0.24266083012644551,"175":-0.732795316184773,"176":-0.7481195266793307,"177":0.46678765851127885,"178":-0.47000213341998526,"179":-1.263522076934651,"180":0.9069269687713983,"181":0.7832174935047643,"182":-0.3043688037916311,"183":-3.0151467651027293,"184":1.544068322343229,"185":-1.6217593007376858,"186":-1.1080672672044176,"187":-0.41513564469372355,"188":-1.556948119061523,"189":-1.6209072675148601,"190":-0.31907738953675485,"191":0.9521444352649442,"192":-0.8099012053991798,"193":-1.2750172529679784,"194":-0.3979294699550662,"195":0.5725627171093574,"196":-2.278609853112784,"197":1.6803760067541231,"198":0.5871623199101657,"199":-1.2519146414454272,"200":-0.029566680247252224,"201":0.2670437774975256,"202":0.3704030320046305,"203":0.05860945497582152,"204":0.08009553093179049,"205":0.021734263544693974,"206":-0.17551431286031063,"207":-0.5721300014920326,"208":-0.40802032943764543,"209":-0.6279083327426077,"210":-0.01358269189318742,"211":-0.30009976790464826,"212":-0.3151600138791515,"213":-0.017282997243055327,"214":-0.23298347679219678,"215":0.006034287705351303,"216":-0.037730187905427655,"217":-0.050984418326706984,"218":0.3633556576712146,"219":0.09185973050356297,"220":-0.022405066364303283,"221":0.14916137648096908,"222":0.035035732912975154,"223":-0.37565201240044777,"224":-0.2152331060227465,"225":-1.5804482508369861,"226":0.35662601144081085,"227":1.1229330510710427,"228":-0.24129673364556117,"229":1.0366190042336982,"230":0.07286768587801055,"231":0.1617583721367064,"232":-0.18909746295048896,"233":-0.9552425550995962,"234":-0.6311221014931089,"235":1.7477648971291344,"236":1.2680422157165077,"237":-3.0604026128657535,"238":-2.3958734280385943,"239":1.5612247779247945,"240":-0.0386910585919984,"241":-0.21530169713925007,"242":0.12241172331009757,"243":-0.09654596879069012,"244":0.032205931779044315,"245":0.02583460870143248,"246":0.11119292091812252,"247":0.10474603770653285,"248":0.6368519707432545,"249":0.5488878213397965,"250":-0.042115161444532305,"251":0.3883457922768528,"252":0.022548790331033967,"253":-0.33384686448285783,"254":0.0071586055374303825,"255":-0.0009104661756972082,"256":-0.03983923373708534,"257":0.0238032446586973,"258":0.5061159395114844,"259":0.34905899871550183,"260":1.8362054777147878,"261":1.5660661331643455,"262":0.6065717645112936,"263":0.6243177193577526,"264":1.2710883234925847,"265":0.015606032532745272,"266":-0.258649392891495,"267":-0.1882377803707816,"268":0.11978871074300003,"269":0.16808133010524443,"270":-1.9995328442597016,"271":1.029070230768036,"272":1.3548002798942305,"273":-0.6238390850620569,"274":-2.655133247618649,"275":-0.004291400862559052,"276":0.006509339663432141,"277":0.27053009357964636,"278":0.0023148111589849757,"279":0.1824446281058755,"280":-2.984333362533637,"281":0.5611819257972501,"282":4.309069261120166,"283":-5.402764635677514,"284":4.0481606168581346,"285":0.007013706782620554,"286":-0.126792367684699,"287":-0.1463805754520956,"288":-0.003701959734762135,"289":-0.06784742796439493,"290":-0.20622322419069286,"291":-0.2778957486813253,"292":0.18772128020972026,"293":-0.7876950337675351,"294":-0.6377194649560561,"295":0.628292220308952,"296":-0.44991044946554287,"297":0.34019413371026985,"298":-0.6631577844950249,"299":-0.463309719340365,"300":0.00195379267947441,"301":-0.29532359876695197,"302":-0.35168714367929305,"303":-0.22919240862453738,"304":-0.34258667534777054,"305":1.8980001566757247,"306":-0.7429760723114174,"307":-3.287503015649476,"308":-0.16672249008289988,"309":-3.5434592851348574,"310":-0.012406357838143903,"311":0.09902265537781783,"312":0.1804403883831617,"313":-0.1220166452924671,"314":0.11476488040378192,"315":-1.0309888809412278,"316":0.3274453016350119,"317":0.2851274147213133,"318":-0.7714480284434693,"319":-1.109536265805382,"320":-2.146840959354294,"321":6.044610501872321,"322":-0.6200235377078412,"323":1.4840883977744044,"324":-0.4859104727077103,"325":-1.7440308497505759,"326":0.6639964669538114,"327":-2.7949330839146675,"328":1.1627973084426233,"329":0.6354038668337929,"330":0.6498893354890264,"331":-0.4191410962654878,"332":0.33811682824278616,"333":-0.7014938189870743,"334":-0.45419621809683314,"335":-2.0594634459349237,"336":-0.8979103199352813,"337":-0.07364984656952206,"338":-1.049118454970969,"339":-1.3463255163771117,"340":0.006567288102704969,"341":-0.14445489990626043,"342":-0.20147562629307092,"343":0.002569147421384167,"344":-0.15418144981809448,"345":0.21359612280176896,"346":1.2272505942770109,"347":-1.147633046968764,"348":-1.9922020140085925,"349":-2.169138685679109,"350":-0.5278226517271886,"351":0.4582222073856346,"352":-0.12255918074949211,"353":0.5162457827400355,"354":-0.572955288383746,"355":0.01794843146098663,"356":-0.17756916149409477,"357":-0.26059755468441126,"358":-0.21142604067211834,"359":-0.32347828159841835,"360":-0.0006628648893532428,"361":-0.05806297179191299,"362":-0.0017226129061471925,"363":0.118346355170626,"364":0.08641743145875053,"365":2.6373551538593873,"366":1.5776433167925472,"367":-1.5655819936290074,"368":0.6912055562281,"369":2.938989549870069,"370":-0.008372692634129864,"371":0.06669722707463388,"372":0.10648703067255853,"373":-0.26052484169964457,"374":-0.05257197038279178,"375":-0.037601317454090864,"376":-0.18658458020730948,"377":0.05877828818540888,"378":-0.38498892046872646,"379":-0.2970270269032153,"380":0.003746235441634104,"381":0.2855125978987598,"382":0.5527593057317975,"383":0.298406658399133,"384":0.55734931285117,"385":0.01889668751610055,"386":-0.009422974497177664,"387":-0.15705627620690743,"388":-0.5891556318677054,"389":-0.4729452048753377,"390":-0.6870030110442004,"391":-0.8113516204196589,"392":-0.38281464504801416,"393":-0.135393838318399,"394":-0.4900820618730237,"395":-0.8371482072338314,"396":-0.621018618038526,"397":-0.36252064483412083,"398":-0.590306472188834,"399":-0.8487898984569023,"400":-0.03844161278206296,"401":-0.0929035614265159,"402":0.05265817195423166,"403":-0.5829704795175807,"404":-0.3474237211903082,"405":-1.7784975997387995,"406":1.624798149535063,"407":-0.8110061250512121,"408":-0.9354609248331945,"409":1.2483781607223066,"410":-0.03774937739887084,"411":0.1661962356835569,"412":0.34783582337133395,"413":-0.5902308676843682,"414":0.1119257756227281,"415":0.7426743312768043,"416":0.7045005680096231,"417":-0.4979590220687029,"418":0.15206198366691875,"419":1.2444336179598412,"420":-0.0008318512202697509,"421":0.10709600432236084,"422":-0.33613005699913556,"423":0.03458855362491357,"424":-0.2878192857989942,"425":0.011079916951150091,"426":0.22948448129297117,"427":0.2832726161043308,"428":0.029528031130830235,"429":0.1735765159611011,"430":-0.009403446905647558,"431":0.025025572533319503,"432":0.075847483993069,"433":-0.3279331577921484,"434":-0.14158806053515607,"435":-0.0018334723813415025,"436":-0.5150883761905731,"437":-0.1173571035566512,"438":0.157511389667442,"439":-0.07780284057945419,"440":-0.011798944829146072,"441":-0.07694610435715134,"442":0.07543780100791257,"443":-0.21444633773367106,"444":-0.16764601774021068,"445":0.02801158923028846,"446":-0.13808471621083315,"447":-0.5335380365106633,"448":-0.3074931327737215,"449":-0.5563085291067795,"450":0.22548226801317406,"451":0.32451074896611953,"452":-0.3816146518284878,"453":0.6991595192333836,"454":0.5857574358632184,"455":-0.039946125156677954,"456":0.2627039573643813,"457":0.15402416559531967,"458":-0.6123180048513083,"459":-0.057172119398519836,"460":-0.017333543843178513,"461":0.10348150915787055,"462":-0.09506240864074318,"463":0.04349568519440955,"464":-0.169229872913761,"465":0.020694886678861407,"466":-0.04166211766751851,"467":-0.18767082289551468,"468":-0.43056601238608533,"469":-0.41199806948992496,"470":-0.0009287076277383138,"471":0.23875658614445758,"472":0.2933073659215557,"473":0.4191257675418083,"474":0.46240661309692704,"475":-0.02099409868622276,"476":0.02582511737126271,"477":0.18894786167235542,"478":-0.43949545582868615,"479":-0.06336659211817318,"480":0.014937086507346946,"481":0.2131523860851858,"482":0.09486381426443594,"483":0.2920835128836061,"484":0.25472549516345483,"485":-0.016543241556008264,"486":0.04496779297448459,"487":0.10300545920270102,"488":-0.34042473204798895,"489":-0.2005465588927069,"490":-3.0898027760598348,"491":2.295538799957788,"492":-0.5244652449467258,"493":1.4256257850294247,"494":1.239164571111752,"495":-2.6347467183961606,"496":0.43036279522554216,"497":-0.09091178847036696,"498":-0.7938688319627949,"499":-1.7633779870821389}},"b1":{"n":100,"d":1,"w":{"0":0.29821593029689963,"1":0.6976769828540561,"2":0.4199226323133245,"3":0.18167191756618278,"4":-0.24269506997843926,"5":0.5124120925413146,"6":-0.7721893965136658,"7":0.4512179192643387,"8":0.2860180796923874,"9":0.20702689237238486,"10":0.16637679408024242,"11":-0.14358930111940543,"12":-0.9335519007701845,"13":0.04677460403150885,"14":0.5776947106286079,"15":-0.3580600510572005,"16":-0.46643457093956264,"17":-0.023935779751275185,"18":0.3282598559322557,"19":0.3492484696997721,"20":-1.4650803904714358,"21":0.5964041203257364,"22":0.1217959372740176,"23":0.8789663555870556,"24":3.8976329220232366,"25":0.26397794499258603,"26":-0.31727614428273815,"27":-0.11090864264018335,"28":0.0038826682033799124,"29":0.08947225501982413,"30":-0.6081982669393633,"31":1.2814977344667493,"32":0.6547515073453664,"33":-0.045080098607564796,"34":0.25189676021779156,"35":0.7897285120230845,"36":-0.891652307699566,"37":0.7541473434913496,"38":1.0871568523901365,"39":0.030794630076517074,"40":-0.20282935447918146,"41":0.47250513269154387,"42":0.3102377928796671,"43":-0.1277672559183171,"44":0.18246662850252207,"45":-0.41823475403567884,"46":0.37701036067656607,"47":-0.6077186769857299,"48":0.11535138642114325,"49":-0.5271463876340718,"50":0.053051195397459616,"51":-0.2891143498446626,"52":-0.30624034107837145,"53":0.013651061941713743,"54":0.5229613715209978,"55":-0.15066538488564327,"56":2.929609300454088,"57":0.10607047989077738,"58":0.8357310477256179,"59":1.209326775560074,"60":0.39607404397117013,"61":-3.817580930623244,"62":-0.07756390216298888,"63":-0.22267431029758525,"64":-1.0901506898701325,"65":1.1065657071829562,"66":1.1912143350244269,"67":-0.31494692353895154,"68":0.16090680058584744,"69":-0.9701141310841405,"70":-1.5231651859075994,"71":0.2963591845369,"72":-0.051909792217646016,"73":-0.8355570082610942,"74":0.05842537437061662,"75":0.3485939606501767,"76":-0.49263892354658667,"77":0.3864815914092226,"78":-0.13708112739993591,"79":-0.19071398604584253,"80":0.39596324029041524,"81":0.05817744221634377,"82":-0.0075943764942347,"83":-0.5837239165091217,"84":0.15924585134930935,"85":-0.26112321457272025,"86":0.14163016990264668,"87":0.17228761374374593,"88":0.1574335167115998,"89":0.39647629742194246,"90":-0.7858863165670424,"91":0.10925798316517486,"92":0.08311106018628851,"93":0.33246047025403996,"94":-0.4690772203987134,"95":0.1166410150077049,"96":-0.32278549833098974,"97":0.16746993484400285,"98":0.4788659725623966,"99":-1.34068850091056}},"W2":{"n":3,"d":100,"w":{"0":1.5682261081935458,"1":-2.485875544169419,"2":-0.09234649679865307,"3":-0.053373399917134176,"4":0.06191761046526926,"5":0.08480224008118602,"6":0.10815551952493502,"7":-0.11758428865404473,"8":0.4006709793669264,"9":-0.04931308341176654,"10":-0.016915562699480215,"11":0.0913834591938864,"12":0.035945171706582485,"13":-0.10131835347066705,"14":-0.11442136466873255,"15":-0.07979087234792787,"16":0.11033932299795127,"17":-0.04802986187146163,"18":-0.10484224881527758,"19":-0.07789186053549098,"20":0.8452532494438459,"21":1.0656572714975354,"22":-0.09537629558541086,"23":-0.21764081737661725,"24":1.2738606118007882,"25":-0.06006073557046402,"26":-0.12840187075120665,"27":0.046851296865651884,"28":0.33875864815337114,"29":-0.011011203270204972,"30":0.09379280612683795,"31":-0.5034145595386407,"32":0.7671031391051022,"33":-2.0219838109938397,"34":-0.05927756374056913,"35":0.050813262789791036,"36":-1.6282212391436879,"37":-1.9580414156110195,"38":-0.4390045735064269,"39":1.9969771412445945,"40":0.06554475488526904,"41":-0.13358617178921756,"42":-0.041095034691720024,"43":0.05345180247378954,"44":-0.047531962220497305,"45":-0.13484429322024566,"46":-0.1786617998086025,"47":-1.7786601784058016,"48":-0.003579209894792209,"49":0.10454080330673697,"50":-0.0509044203086978,"51":0.07702897593612289,"52":1.7868521347640278,"53":-0.0189379972036487,"54":-0.597096600805864,"55":0.02806116483372527,"56":4.670458962388975,"57":-0.020434228632862043,"58":-0.09625634689368409,"59":-0.42994321717200296,"60":-0.08085501904147113,"61":3.419123777855336,"62":0.000592916455802285,"63":-0.5291594550323209,"64":3.1783138688190986,"65":-2.729935657436634,"66":-0.4216029781054826,"67":-0.8229474538196478,"68":-0.023430037911933693,"69":0.6603144383028274,"70":0.6844842193561151,"71":-0.06432739953639699,"72":0.01483215243890233,"73":2.698223238529518,"74":-0.027668610550719792,"75":-0.047418097834431544,"76":0.11661278876421022,"77":-0.10595827832263295,"78":-0.45785347884037547,"79":-1.0865245880726464,"80":-0.0827205696219734,"81":-1.2140803331536782,"82":-0.08922373353784994,"83":-0.30910793855331964,"84":-0.023159257981010817,"85":0.03913871830436236,"86":-0.04037134196626556,"87":0.0051254553933942374,"88":-0.020713349546766208,"89":-0.11433171270258065,"90":0.0483380694341349,"91":-0.10273948081637678,"92":0.007604162512485806,"93":-0.08436311418074682,"94":0.0988686553647814,"95":-0.05279027660980882,"96":0.05550497526453833,"97":-0.03503604283074839,"98":0.26276567304010057,"99":2.2483872248604206,"100":0.13747167792481457,"101":-1.0104390787852005,"102":-0.1879230639435702,"103":-0.09862057321970787,"104":0.10711861712992811,"105":-0.40725949418815455,"106":0.18847647734456482,"107":-0.25354432137297783,"108":0.294862769041351,"109":-0.10447099675754629,"110":-0.012274325780522052,"111":0.19660271904690507,"112":0.21662066394801213,"113":-0.16099589423225205,"114":-0.26379365162112905,"115":0.10348371276691277,"116":0.21976230824636855,"117":0.10838424985457018,"118":-0.23974109974969673,"119":-0.09827536909810114,"120":0.7034206332997077,"121":1.4085700908165173,"122":-0.2743632103534182,"123":-0.3965530128228009,"124":1.2346050119199965,"125":-0.15081222830943583,"126":0.34182181776097315,"127":0.01690988446566133,"128":-0.025954796500945666,"129":-0.034016843566545975,"130":0.05804562275999454,"131":-0.04842844780387743,"132":0.1797093052977559,"133":0.7084505037019181,"134":-0.1390048582727745,"135":-0.58005303247278,"136":-0.22279785230748042,"137":0.556515043382178,"138":-0.6491915938764155,"139":-0.14341311341556173,"140":0.12388013074147186,"141":-0.35486937309746563,"142":-0.15056050450667263,"143":0.021352952430531993,"144":-0.052764331783258935,"145":-0.11845654957439679,"146":-0.2966475394454746,"147":-0.4582189978167661,"148":0.031945291878106456,"149":0.1939628365087485,"150":0.008944739464302572,"151":0.11522650378947333,"152":-0.2831957146782438,"153":-0.006359948049281785,"154":-0.1680013642783743,"155":0.11716103857179044,"156":0.07794109821519761,"157":-0.05778839214414031,"158":-0.18275246242513704,"159":-0.7782837395239268,"160":-0.19535116170586916,"161":0.9874162411077788,"162":0.07274324972442908,"163":0.14596889018919879,"164":-0.49154082328058885,"165":0.7256951513790306,"166":-0.7873992244209755,"167":0.2577404627643747,"168":-0.09448013506747299,"169":-3.1251108634291094,"170":0.35008947435433246,"171":-0.16306280145290708,"172":0.025083567707320262,"173":-1.2720083144636745,"174":0.005369280009760581,"175":-0.07687816064755958,"176":0.3228635157932161,"177":-0.19073836003099998,"178":-0.2831961276789736,"179":-0.4002708426835083,"180":-0.0983310096594408,"181":-1.6820121505291632,"182":0.09383044869432126,"183":0.6818608274327255,"184":-0.15948365238227927,"185":0.12391787321294881,"186":-0.028667794870004964,"187":-0.06630320119421693,"188":-0.03417441067314436,"189":-0.3120610821757118,"190":0.1249809603947123,"191":0.00496363623720585,"192":-0.06325235390107531,"193":-0.1738346982737957,"194":0.21803471227508994,"195":0.014717282881117476,"196":0.09929638049420843,"197":-0.037702996698188364,"198":0.36018585840976963,"199":-1.7137589105367799,"200":0.8207500019664264,"201":2.7687047049399194,"202":-0.003630788390433233,"203":0.0026991667609353506,"204":0.0023825160196835476,"205":-0.2414071877721674,"206":0.007458258075240319,"207":0.003404153966408972,"208":-1.7207578607824883,"209":-0.0041783701435109425,"210":-0.022163370433826463,"211":-0.0210340609261118,"212":0.04838920861801829,"213":0.07844338517231218,"214":-0.002705152078552328,"215":0.24634377344528646,"216":0.0013422614714475025,"217":0.0016018371776797414,"218":0.006726771463072617,"219":-0.007417764624676572,"220":1.188060933967041,"221":1.2604542259530722,"222":-0.032636276682212494,"223":-0.19109861645438234,"224":1.6615836393419914,"225":-0.0009328162505439559,"226":0.32767048231542373,"227":-0.0025389818244676374,"228":-1.516793419418542,"229":-0.009733526750012003,"230":0.047905855806743246,"231":1.2722552302145582,"232":2.091673141896909,"233":-0.7474233986416786,"234":0.0012854527867908337,"235":-0.5168864587563041,"236":0.3864601303001146,"237":-0.7653652528818031,"238":-0.1479676759193169,"239":0.410582021512352,"240":-0.007939537680554366,"241":0.00526307848309175,"242":-0.002649979968569752,"243":-0.003727639923581128,"244":0.013119118572109897,"245":0.8591911888488915,"246":0.008370194689800905,"247":0.3909466657181639,"248":-0.016559029927202304,"249":0.004729575100279969,"250":0.06469490255178134,"251":0.0021831295763092896,"252":1.829160036600462,"253":0.00476389549046574,"254":1.1917300826612143,"255":-0.019397238680219978,"256":-1.3209540926976755,"257":0.0002565948025092329,"258":0.005529501757557272,"259":-0.4466201126561349,"260":-0.0034856174110781913,"261":0.9720034461513025,"262":0.003817687982871617,"263":0.2785224675458531,"264":-0.7046620736322655,"265":-1.6722081674888554,"266":-0.46209746852365297,"267":-2.136810255931116,"268":-0.0017153183596207416,"269":-0.4027724079531882,"270":1.038549274919364,"271":-0.00801324993213469,"272":-0.0021472556908123056,"273":-0.3602905149047351,"274":-0.00006351466746128389,"275":-0.020079320885327198,"276":-0.0010025194395214686,"277":-0.0012241240537646239,"278":-0.8106144656757502,"279":-0.5792745539142288,"280":-0.007623623757528743,"281":0.28545197387256993,"282":0.014449958892690738,"283":0.4661969767317694,"284":0.03016871572205226,"285":-0.007224845770765446,"286":-0.003930923280576482,"287":-0.06101640263209881,"288":-0.01808422581563088,"289":0.0029117381583809187,"290":0.01569449769275498,"291":0.03315376392359049,"292":0.014906424876427852,"293":-0.002772816136031854,"294":0.005632271481949874,"295":-0.004818600629389313,"296":0.01086287993238783,"297":-0.006708142395514456,"298":-1.3278646519792077,"299":-1.8035584770935131}},"b2":{"n":3,"d":1,"w":{"0":-0.8094134332661888,"1":-0.006755325084267332,"2":-0.2679342163543848}}}}}